net
{
    node_size = (80 40);
    HR_realname_Consciente = "Consciente";
    HR_realname_DirecaoCarro = "DirecaoCarro";
    HR_realname_SomCarro = "SomCarro";
    HR_realname_DistracaoApp = "DistracaoApp";
    HR_realname_Percepcao = "Percepcao";
    HR_ToolBar_CDVT = "0";
    HR_DBN_Use_BK = "0";
    HR_Html_Desc = "0";
    HR_HTML_Desc = "";
    HR_Link_Groups_IDs = "";
    HR_Groups_IDs = "";
    HR_Node_Label_Style = "0";
    HR_DBN_Num_Slices = "5";
    HR_Desc = "";
    HR_OOBN_CheckConsistency = "1";
    HR_OOBN_FitExpand = "1";
    HR_Zoom_ZoomFactor = "100";
    HR_Groups_GroupColors = "";
    HR_Groups_GroupNames = "";
    HR_Groups_UserGroupsNo = "0";
    HR_Utility_Link = "63";
    HR_Probabilistic_Link = "63";
    HR_Functional_Link = "63";
    HR_Binding_Link = "63";
    HR_Information_Arc = "63";
    HR_Color_Interface = "21";
    HR_Color_Instance = "0";
    HR_Color_DiscreteFunction = "5";
    HR_Color_Function = "4";
    HR_Color_Utility = "36";
    HR_Color_Decision = "17";
    HR_Color_ContinuousChance = "48";
    HR_Color_DiscreteChance = "16";
    HR_Monitor_InitSD = "2";
    HR_Monitor_Utility_Arrange = "0";
    HR_Monitor_Mean_Variance = "1";
    HR_Monitor_Chance_Utility = "1";
    HR_Monitor_InitStates = "5";
    HR_Monitor_OpenGraph = "0";
    HR_Monitor_GraphPrecision = "100";
    HR_Monitor_AutoUpdGraph = "0";
    HR_Compile_MaxMinimalSeparators = "100000";
    HR_Compile_ApproxEpsilon = "1.0E-5";
    HR_Compile_Approximate = "0";
    HR_Compile_SaveToMemory = "0";
    HR_Compile_Compress = "0";
    HR_Compile_TriangMethod = "0";
    HR_Propagate_AutoNormal = "1";
    HR_Propagate_AutoSum = "1";
    HR_Propagate_Auto = "1";
    HR_Font_Italic = "0";
    HR_Font_Weight = "400";
    HR_Font_Size = "-12";
    HR_Font_Name = "javax.swing.plaf.FontUIResource[family=Tahoma,name=Tahoma,style=plain,size=11]";
    HR_Grid_GridShow = "0";
    HR_Grid_GridSnap = "0";
    HR_Grid_Y = "40";
    HR_Grid_X = "40";
}

node Percepcao
{
    label = "";
    position = (579 168);
    states = ("Presente" "Tardia" "Ausente");
    HR_LinkControlPoints = "";
    HR_State_2 = "";
    HR_State_0 = "";
    HR_State_1 = "";
    HR_Desc = "";
    HR_HTML_Desc = "";
    HR_NodeSize = "(116, 78)";
    HR_LinkMode = "[Distraido_1:0][ConscienciaSituacional:0]";
    HR_LinkGroup = "[Distraido_1:0]";
    HR_Group = "0";
}

node DistracaoApp
{
    label = "";
    position = (462 224);
    states = ("Sim" "Nao");
    HR_LinkControlPoints = "";
    HR_LinkGroup = "";
    HR_LinkMode = "";
    HR_NodeSize = "(116, 78)";
    HR_Group = "0";
    HR_HTML_Desc = "";
    HR_Desc = "";
    HR_State_1 = "";
    HR_State_0 = "";
}

node SomCarro
{
    label = "";
    position = (315 240);
    states = ("Sim" "Nao");
    HR_LinkControlPoints = "";
    HR_LinkGroup = "";
    HR_LinkMode = "[ConscienciaSituacional:0]";
    HR_NodeSize = "(111, 71)";
    HR_Group = "0";
    HR_HTML_Desc = "";
    HR_Desc = "";
    HR_State_1 = "";
    HR_State_0 = "";
}

node DirecaoCarro
{
    label = "";
    position = (210 161);
    states = ("Frente" "Direita" "Tras" "Esquerda");
    HR_LinkControlPoints = "";
    HR_State_3 = "";
    HR_State_2 = "";
    HR_LinkGroup = "";
    HR_LinkMode = "[ConscienciaSituacional:0]";
    HR_NodeSize = "(107, 74)";
    HR_Group = "0";
    HR_HTML_Desc = "";
    HR_Desc = "";
    HR_State_1 = "";
    HR_State_0 = "";
}

node Consciente
{
    label = "";
    position = (386 111);
    states = ("Consciente" "Inconsciente");
    HR_LinkControlPoints = "";
    HR_LinkGroup = "[DirecaoCarro:0][SomCarro:0][DistracaoApp:0][Percepcao:0]";
    HR_LinkMode = "[DirecaoCarro:0][SomCarro:0][DistracaoApp:0][Percepcao:0]";
    HR_State_2 = "";
    HR_NodeSize = "(159, 100)";
    HR_Group = "0";
    HR_HTML_Desc = "";
    HR_Desc = "";
    HR_State_1 = "";
    HR_State_0 = "";
}

potential (Percepcao | Consciente)
{
    data
     = (( 0.66273 0.33727 0 )	%  Consciente=Consciente
	( 0.07633 0.07633 0.84734 ));	%  Consciente=Inconsciente
}

potential (DistracaoApp | Consciente)
{
    data
     = (( 0.70076 0.29924 )	%  Consciente=Consciente
	( 0.83153 0.16847 ));	%  Consciente=Inconsciente
}

potential (SomCarro | Consciente)
{
    data
     = (( 0.51308 0.48692 )	%  Consciente=Consciente
	( 0.3649 0.6351 ));	%  Consciente=Inconsciente
}

potential (DirecaoCarro | Consciente)
{
    data
     = (( 0.25866 0.22767 0.25319 0.26048 )	%  Consciente=Consciente
	( 0.17175 0.40128 0.27608 0.15089 ));	%  Consciente=Inconsciente
}

potential (Consciente)
{
    data = ( 0.8 0.2 );
}
